{
    "nodes": [
        [
            1,
            2
        ],
        [
            1.6,
            -1.57,
            -0.6,
            1.8199999999999998,
            2.2700000000000005,
            2.4599999999999995,
            -1.1300000000000001,
            0.8000000000000002,
            -0.6400000000000001,
            1.1
        ],
        [
            0.8355000000000001,
            0.5224999999999999,
            -0.3522999999999998,
            0.31370000000000015,
            0.7112999999999994,
            -0.8151000000000005,
            0.8854000000000004,
            0.14590000000000064,
            0.09410000000000016,
            -0.5548999999999996
        ],
        [
            1.9214330000000013
        ]
    ],
    "weights": [
        [
            [
                -0.79,
                0.22,
                -0.35,
                0.43,
                -0.37,
                0.7,
                0.11,
                0.11,
                -0.39,
                -0.03
            ],
            [
                0.79,
                -0.74,
                -0.17,
                0.85,
                0.92,
                0.99,
                -0.45,
                0.53,
                -0.52,
                0.81
            ]
        ],
        [
            [
                0.13,
                -0.84,
                0.45,
                0.56,
                -0.24,
                -0.78,
                -0.37,
                -0.06,
                0.67,
                -0.58
            ],
            [
                -0.36,
                -0.67,
                0.19,
                -0.68,
                0.46,
                0.05,
                -0.21,
                0.05,
                -0.4,
                -0.43
            ],
            [
                0.23,
                0.65,
                0.61,
                -0.17,
                0.03,
                0.28,
                0.63,
                0.02,
                0.84,
                -0.39
            ],
            [
                0.23,
                -0.74,
                -0.52,
                0.35,
                -0.67,
                0.87,
                0.87,
                0.33,
                -0.77,
                0.78
            ],
            [
                0.08,
                -0.22,
                0.25,
                -0.64,
                0.59,
                -0.2,
                0.45,
                0.75,
                -0.82,
                -0.09
            ],
            [
                -0.13,
                0.73,
                0.46,
                -0.17,
                0.72,
                0.05,
                -0.54,
                -0.75,
                0.64,
                -0.51
            ],
            [
                0.99,
                -0.96,
                0.73,
                0.89,
                -0.1,
                0.72,
                -0.84,
                0.11,
                -0.35,
                0.93
            ],
            [
                0.45,
                0.74,
                -0.02,
                0.61,
                -0.05,
                -0.01,
                -0.69,
                0.86,
                -0.2,
                0.02
            ],
            [
                0.26,
                0.42,
                -0.78,
                0.03,
                0.24,
                -0.09,
                0.75,
                0.76,
                -0.6,
                0.17
            ],
            [
                0.35,
                -0.33,
                -0.69,
                -0.31,
                -0.45,
                -0.19,
                -0.58,
                -0.73,
                0.17,
                0.67
            ]
        ],
        [
            [
                0.81
            ],
            [
                0.03
            ],
            [
                0.01
            ],
            [
                0.78
            ],
            [
                0.36
            ],
            [
                -0.95
            ],
            [
                -0.49
            ],
            [
                0.93
            ],
            [
                0.23
            ],
            [
                0.93
            ]
        ]
    ],
    "biases": [
        [
            0.81,
            -0.31,
            0.09,
            -0.31,
            0.8,
            -0.22,
            -0.34,
            -0.37,
            0.79,
            -0.49
        ],
        [
            0.46,
            0.21,
            -0.06,
            0.36,
            0.52,
            0.4,
            0.97,
            0.6,
            -0.22,
            -0.09
        ],
        [
            0.75
        ]
    ],
    "softmax_nodes": [
        0.8722981465919775
    ]
}